digraph Tree {
node [shape=box] ;
0 [label="X[1] <= 0.5\ngini = 0.666\nsamples = 36396\nvalue = [3864, 7842, 6812, 17878]"] ;
1 [label="X[0] <= 2015.5\ngini = 0.0\nsamples = 12436\nvalue = [0, 0, 1, 12435]"] ;
0 -> 1 [labeldistance=2.5, labelangle=45, headlabel="True"] ;
2 [label="gini = 0.002\nsamples = 942\nvalue = [0, 0, 1, 941]"] ;
1 -> 2 ;
3 [label="gini = 0.0\nsamples = 11494\nvalue = [0, 0, 0, 11494]"] ;
1 -> 3 ;
4 [label="X[0] <= 2017.5\ngini = 0.734\nsamples = 23960\nvalue = [3864, 7842, 6811, 5443]"] ;
0 -> 4 [labeldistance=2.5, labelangle=-45, headlabel="False"] ;
5 [label="X[0] <= 2015.5\ngini = 0.718\nsamples = 18415\nvalue = [3719, 6962, 5157, 2577]"] ;
4 -> 5 ;
6 [label="X[1] <= 1.5\ngini = 0.712\nsamples = 6212\nvalue = [1869, 2233, 1517, 593]"] ;
5 -> 6 ;
7 [label="gini = 0.707\nsamples = 5186\nvalue = [1627, 1811, 1333, 415]"] ;
6 -> 7 ;
8 [label="X[1] <= 2.5\ngini = 0.713\nsamples = 1026\nvalue = [242, 422, 184, 178]"] ;
6 -> 8 ;
9 [label="gini = 0.712\nsamples = 776\nvalue = [200, 316, 128, 132]"] ;
8 -> 9 ;
10 [label="X[1] <= 4.5\ngini = 0.708\nsamples = 250\nvalue = [42, 106, 56, 46]"] ;
8 -> 10 ;
11 [label="X[1] <= 3.5\ngini = 0.708\nsamples = 247\nvalue = [42, 105, 54, 46]"] ;
10 -> 11 ;
12 [label="gini = 0.709\nsamples = 207\nvalue = [33, 87, 48, 39]"] ;
11 -> 12 ;
13 [label="gini = 0.694\nsamples = 40\nvalue = [9, 18, 6, 7]"] ;
11 -> 13 ;
14 [label="gini = 0.444\nsamples = 3\nvalue = [0, 1, 2, 0]"] ;
10 -> 14 ;
15 [label="X[1] <= 1.5\ngini = 0.711\nsamples = 12203\nvalue = [1850, 4729, 3640, 1984]"] ;
5 -> 15 ;
16 [label="X[0] <= 2016.5\ngini = 0.708\nsamples = 10395\nvalue = [1620, 3933, 3341, 1501]"] ;
15 -> 16 ;
17 [label="gini = 0.704\nsamples = 5039\nvalue = [986, 2009, 1486, 558]"] ;
16 -> 17 ;
18 [label="gini = 0.706\nsamples = 5356\nvalue = [634, 1924, 1855, 943]"] ;
16 -> 18 ;
19 [label="X[1] <= 2.5\ngini = 0.691\nsamples = 1808\nvalue = [230, 796, 299, 483]"] ;
15 -> 19 ;
20 [label="X[0] <= 2016.5\ngini = 0.676\nsamples = 1431\nvalue = [165, 672, 230, 364]"] ;
19 -> 20 ;
21 [label="gini = 0.684\nsamples = 718\nvalue = [115, 338, 118, 147]"] ;
20 -> 21 ;
22 [label="gini = 0.658\nsamples = 713\nvalue = [50, 334, 112, 217]"] ;
20 -> 22 ;
23 [label="X[0] <= 2016.5\ngini = 0.729\nsamples = 377\nvalue = [65, 124, 69, 119]"] ;
19 -> 23 ;
24 [label="X[1] <= 4.5\ngini = 0.734\nsamples = 180\nvalue = [39, 62, 31, 48]"] ;
23 -> 24 ;
25 [label="X[1] <= 3.5\ngini = 0.736\nsamples = 175\nvalue = [39, 59, 31, 46]"] ;
24 -> 25 ;
26 [label="gini = 0.733\nsamples = 135\nvalue = [29, 47, 23, 36]"] ;
25 -> 26 ;
27 [label="gini = 0.745\nsamples = 40\nvalue = [10, 12, 8, 10]"] ;
25 -> 27 ;
28 [label="gini = 0.48\nsamples = 5\nvalue = [0, 3, 0, 2]"] ;
24 -> 28 ;
29 [label="X[1] <= 4.5\ngini = 0.716\nsamples = 197\nvalue = [26, 62, 38, 71]"] ;
23 -> 29 ;
30 [label="X[1] <= 3.5\ngini = 0.713\nsamples = 192\nvalue = [25, 62, 35, 70]"] ;
29 -> 30 ;
31 [label="gini = 0.715\nsamples = 136\nvalue = [16, 46, 28, 46]"] ;
30 -> 31 ;
32 [label="gini = 0.693\nsamples = 56\nvalue = [9, 16, 7, 24]"] ;
30 -> 32 ;
33 [label="gini = 0.56\nsamples = 5\nvalue = [1, 0, 3, 1]"] ;
29 -> 33 ;
34 [label="X[0] <= 2018.5\ngini = 0.618\nsamples = 5545\nvalue = [145, 880, 1654, 2866]"] ;
4 -> 34 ;
35 [label="X[1] <= 1.5\ngini = 0.644\nsamples = 4586\nvalue = [136, 821, 1487, 2142]"] ;
34 -> 35 ;
36 [label="gini = 0.651\nsamples = 3787\nvalue = [112, 677, 1367, 1631]"] ;
35 -> 36 ;
37 [label="X[1] <= 2.5\ngini = 0.535\nsamples = 799\nvalue = [24, 144, 120, 511]"] ;
35 -> 37 ;
38 [label="gini = 0.535\nsamples = 605\nvalue = [16, 115, 88, 386]"] ;
37 -> 38 ;
39 [label="X[1] <= 4.5\ngini = 0.534\nsamples = 194\nvalue = [8, 29, 32, 125]"] ;
37 -> 39 ;
40 [label="X[1] <= 3.5\ngini = 0.533\nsamples = 188\nvalue = [7, 28, 32, 121]"] ;
39 -> 40 ;
41 [label="gini = 0.531\nsamples = 130\nvalue = [5, 19, 22, 84]"] ;
40 -> 41 ;
42 [label="gini = 0.538\nsamples = 58\nvalue = [2, 9, 10, 37]"] ;
40 -> 42 ;
43 [label="gini = 0.5\nsamples = 6\nvalue = [1, 1, 0, 4]"] ;
39 -> 43 ;
44 [label="X[1] <= 1.5\ngini = 0.396\nsamples = 959\nvalue = [9, 59, 167, 724]"] ;
34 -> 44 ;
45 [label="gini = 0.411\nsamples = 792\nvalue = [6, 44, 156, 586]"] ;
44 -> 45 ;
46 [label="X[1] <= 3.5\ngini = 0.304\nsamples = 167\nvalue = [3, 15, 11, 138]"] ;
44 -> 46 ;
47 [label="X[1] <= 2.5\ngini = 0.326\nsamples = 154\nvalue = [3, 15, 11, 125]"] ;
46 -> 47 ;
48 [label="gini = 0.271\nsamples = 118\nvalue = [1, 9, 8, 100]"] ;
47 -> 48 ;
49 [label="gini = 0.48\nsamples = 36\nvalue = [2, 6, 3, 25]"] ;
47 -> 49 ;
50 [label="gini = 0.0\nsamples = 13\nvalue = [0, 0, 0, 13]"] ;
46 -> 50 ;
}